digraph Tree {
node [shape=box, style="filled, rounded", color="black", fontname=helvetica] ;
edge [fontname=helvetica] ;
0 [label="sqft_living <= 1650.0\ngini = 0.485\nsamples = 263\nvalue = [154, 109]\nclass = BAIXO", fillcolor="#f7dac5"] ;
1 [label="bathrooms <= 2.375\ngini = 0.249\nsamples = 48\nvalue = [7, 41]\nclass = ACIMA", fillcolor="#5baee9"] ;
0 -> 1 [labeldistance=2.5, labelangle=45, headlabel="True"] ;
2 [label="bedrooms <= 3.5\ngini = 0.165\nsamples = 44\nvalue = [4, 40]\nclass = ACIMA", fillcolor="#4da7e8"] ;
1 -> 2 ;
3 [label="sqft_above <= 1295.0\ngini = 0.095\nsamples = 40\nvalue = [2, 38]\nclass = ACIMA", fillcolor="#43a2e6"] ;
2 -> 3 ;
4 [label="gini = 0.0\nsamples = 29\nvalue = [0, 29]\nclass = ACIMA", fillcolor="#399de5"] ;
3 -> 4 ;
5 [label="sqft_living <= 1340.0\ngini = 0.298\nsamples = 11\nvalue = [2, 9]\nclass = ACIMA", fillcolor="#65b3eb"] ;
3 -> 5 ;
6 [label="gini = 0.0\nsamples = 2\nvalue = [2, 0]\nclass = BAIXO", fillcolor="#e58139"] ;
5 -> 6 ;
7 [label="gini = 0.0\nsamples = 9\nvalue = [0, 9]\nclass = ACIMA", fillcolor="#399de5"] ;
5 -> 7 ;
8 [label="grade <= 6.5\ngini = 0.5\nsamples = 4\nvalue = [2, 2]\nclass = BAIXO", fillcolor="#ffffff"] ;
2 -> 8 ;
9 [label="gini = 0.0\nsamples = 2\nvalue = [2, 0]\nclass = BAIXO", fillcolor="#e58139"] ;
8 -> 9 ;
10 [label="gini = 0.0\nsamples = 2\nvalue = [0, 2]\nclass = ACIMA", fillcolor="#399de5"] ;
8 -> 10 ;
11 [label="sqft_living <= 1570.0\ngini = 0.375\nsamples = 4\nvalue = [3, 1]\nclass = BAIXO", fillcolor="#eeab7b"] ;
1 -> 11 ;
12 [label="gini = 0.5\nsamples = 2\nvalue = [1, 1]\nclass = BAIXO", fillcolor="#ffffff"] ;
11 -> 12 ;
13 [label="gini = 0.0\nsamples = 2\nvalue = [2, 0]\nclass = BAIXO", fillcolor="#e58139"] ;
11 -> 13 ;
14 [label="sqft_lot <= 34447.5\ngini = 0.432\nsamples = 215\nvalue = [147, 68]\nclass = BAIXO", fillcolor="#f1bb95"] ;
0 -> 14 [labeldistance=2.5, labelangle=-45, headlabel="False"] ;
15 [label="sqft_basement <= 560.0\ngini = 0.213\nsamples = 124\nvalue = [109, 15]\nclass = BAIXO", fillcolor="#e99254"] ;
14 -> 15 ;
16 [label="sqft_lot <= 20314.5\ngini = 0.289\nsamples = 80\nvalue = [66, 14]\nclass = BAIXO", fillcolor="#eb9c63"] ;
15 -> 16 ;
17 [label="sqft_lot <= 6399.5\ngini = 0.236\nsamples = 66\nvalue = [57, 9]\nclass = BAIXO", fillcolor="#e99558"] ;
16 -> 17 ;
18 [label="sqft_lot <= 4001.0\ngini = 0.388\nsamples = 19\nvalue = [14, 5]\nclass = BAIXO", fillcolor="#eeae80"] ;
17 -> 18 ;
19 [label="gini = 0.18\nsamples = 10\nvalue = [9, 1]\nclass = BAIXO", fillcolor="#e88f4f"] ;
18 -> 19 ;
20 [label="gini = 0.494\nsamples = 9\nvalue = [5, 4]\nclass = BAIXO", fillcolor="#fae6d7"] ;
18 -> 20 ;
21 [label="sqft_living <= 2025.0\ngini = 0.156\nsamples = 47\nvalue = [43, 4]\nclass = BAIXO", fillcolor="#e78d4b"] ;
17 -> 21 ;
22 [label="gini = 0.269\nsamples = 25\nvalue = [21, 4]\nclass = BAIXO", fillcolor="#ea995f"] ;
21 -> 22 ;
23 [label="gini = 0.0\nsamples = 22\nvalue = [22, 0]\nclass = BAIXO", fillcolor="#e58139"] ;
21 -> 23 ;
24 [label="sqft_above <= 2355.0\ngini = 0.459\nsamples = 14\nvalue = [9, 5]\nclass = BAIXO", fillcolor="#f3c7a7"] ;
16 -> 24 ;
25 [label="floors <= 1.25\ngini = 0.32\nsamples = 5\nvalue = [1, 4]\nclass = ACIMA", fillcolor="#6ab6ec"] ;
24 -> 25 ;
26 [label="gini = 0.5\nsamples = 2\nvalue = [1, 1]\nclass = BAIXO", fillcolor="#ffffff"] ;
25 -> 26 ;
27 [label="gini = 0.0\nsamples = 3\nvalue = [0, 3]\nclass = ACIMA", fillcolor="#399de5"] ;
25 -> 27 ;
28 [label="sqft_lot <= 28628.5\ngini = 0.198\nsamples = 9\nvalue = [8, 1]\nclass = BAIXO", fillcolor="#e89152"] ;
24 -> 28 ;
29 [label="gini = 0.444\nsamples = 3\nvalue = [2, 1]\nclass = BAIXO", fillcolor="#f2c09c"] ;
28 -> 29 ;
30 [label="gini = 0.0\nsamples = 6\nvalue = [6, 0]\nclass = BAIXO", fillcolor="#e58139"] ;
28 -> 30 ;
31 [label="sqft_lot <= 3605.0\ngini = 0.044\nsamples = 44\nvalue = [43, 1]\nclass = BAIXO", fillcolor="#e6843e"] ;
15 -> 31 ;
32 [label="gini = 0.5\nsamples = 2\nvalue = [1, 1]\nclass = BAIXO", fillcolor="#ffffff"] ;
31 -> 32 ;
33 [label="gini = 0.0\nsamples = 42\nvalue = [42, 0]\nclass = BAIXO", fillcolor="#e58139"] ;
31 -> 33 ;
34 [label="sqft_basement <= 645.0\ngini = 0.486\nsamples = 91\nvalue = [38, 53]\nclass = ACIMA", fillcolor="#c7e3f8"] ;
14 -> 34 ;
35 [label="bathrooms <= 2.875\ngini = 0.459\nsamples = 73\nvalue = [26, 47]\nclass = ACIMA", fillcolor="#a7d3f3"] ;
34 -> 35 ;
36 [label="sqft_above <= 2280.0\ngini = 0.488\nsamples = 59\nvalue = [25, 34]\nclass = ACIMA", fillcolor="#cbe5f8"] ;
35 -> 36 ;
37 [label="sqft_lot <= 51400.5\ngini = 0.308\nsamples = 21\nvalue = [4, 17]\nclass = ACIMA", fillcolor="#68b4eb"] ;
36 -> 37 ;
38 [label="gini = 0.0\nsamples = 13\nvalue = [0, 13]\nclass = ACIMA", fillcolor="#399de5"] ;
37 -> 38 ;
39 [label="gini = 0.5\nsamples = 8\nvalue = [4, 4]\nclass = BAIXO", fillcolor="#ffffff"] ;
37 -> 39 ;
40 [label="sqft_lot <= 48746.5\ngini = 0.494\nsamples = 38\nvalue = [21, 17]\nclass = BAIXO", fillcolor="#fae7d9"] ;
36 -> 40 ;
41 [label="gini = 0.453\nsamples = 26\nvalue = [17, 9]\nclass = BAIXO", fillcolor="#f3c4a2"] ;
40 -> 41 ;
42 [label="gini = 0.444\nsamples = 12\nvalue = [4, 8]\nclass = ACIMA", fillcolor="#9ccef2"] ;
40 -> 42 ;
43 [label="sqft_living <= 4815.0\ngini = 0.133\nsamples = 14\nvalue = [1, 13]\nclass = ACIMA", fillcolor="#48a5e7"] ;
35 -> 43 ;
44 [label="gini = 0.0\nsamples = 12\nvalue = [0, 12]\nclass = ACIMA", fillcolor="#399de5"] ;
43 -> 44 ;
45 [label="gini = 0.5\nsamples = 2\nvalue = [1, 1]\nclass = BAIXO", fillcolor="#ffffff"] ;
43 -> 45 ;
46 [label="sqft_lot <= 90987.5\ngini = 0.444\nsamples = 18\nvalue = [12, 6]\nclass = BAIXO", fillcolor="#f2c09c"] ;
34 -> 46 ;
47 [label="sqft_above <= 1595.0\ngini = 0.278\nsamples = 12\nvalue = [10, 2]\nclass = BAIXO", fillcolor="#ea9a61"] ;
46 -> 47 ;
48 [label="gini = 0.0\nsamples = 6\nvalue = [6, 0]\nclass = BAIXO", fillcolor="#e58139"] ;
47 -> 48 ;
49 [label="sqft_above <= 1750.0\ngini = 0.444\nsamples = 6\nvalue = [4, 2]\nclass = BAIXO", fillcolor="#f2c09c"] ;
47 -> 49 ;
50 [label="gini = 0.0\nsamples = 2\nvalue = [0, 2]\nclass = ACIMA", fillcolor="#399de5"] ;
49 -> 50 ;
51 [label="gini = 0.0\nsamples = 4\nvalue = [4, 0]\nclass = BAIXO", fillcolor="#e58139"] ;
49 -> 51 ;
52 [label="sqft_above <= 2250.0\ngini = 0.444\nsamples = 6\nvalue = [2, 4]\nclass = ACIMA", fillcolor="#9ccef2"] ;
46 -> 52 ;
53 [label="gini = 0.0\nsamples = 4\nvalue = [0, 4]\nclass = ACIMA", fillcolor="#399de5"] ;
52 -> 53 ;
54 [label="gini = 0.0\nsamples = 2\nvalue = [2, 0]\nclass = BAIXO", fillcolor="#e58139"] ;
52 -> 54 ;
}